digraph Tree {
node [shape=box, style="rounded", color="black", fontname="helvetica"] ;
edge [fontname="helvetica"] ;
0 [label="Non_college_jobs <= 3.2\nsquared_error = 3.3\nsamples = 99\nvalue = 0.5"] ;
1 [label="Non_college_jobs <= 1.3\nsquared_error = 0.5\nsamples = 93\nvalue = 0.2"] ;
0 -> 1 [labeldistance=2.5, labelangle=45, headlabel="True"] ;
2 [label="Non_college_jobs <= 0.3\nsquared_error = 0.1\nsamples = 85\nvalue = -0.0"] ;
1 -> 2 ;
3 [label="squared_error = 0.0\nsamples = 63\nvalue = -0.2"] ;
2 -> 3 ;
4 [label="squared_error = 0.1\nsamples = 22\nvalue = 0.6"] ;
2 -> 4 ;
5 [label="Non_college_jobs <= 1.8\nsquared_error = 0.4\nsamples = 8\nvalue = 2.1"] ;
1 -> 5 ;
6 [label="squared_error = 0.1\nsamples = 3\nvalue = 1.6"] ;
5 -> 6 ;
7 [label="squared_error = 0.1\nsamples = 5\nvalue = 2.7"] ;
5 -> 7 ;
8 [label="Non_college_jobs <= 6.7\nsquared_error = 5.1\nsamples = 6\nvalue = 7.4"] ;
0 -> 8 [labeldistance=2.5, labelangle=-45, headlabel="False"] ;
9 [label="Unemployment_rate <= 0.2\nsquared_error = 0.1\nsamples = 2\nvalue = 4.6"] ;
8 -> 9 ;
10 [label="squared_error = 0.0\nsamples = 1\nvalue = 5.0"] ;
9 -> 10 ;
11 [label="squared_error = 0.0\nsamples = 1\nvalue = 4.4"] ;
9 -> 11 ;
12 [label="Non_college_jobs <= 11.8\nsquared_error = 0.6\nsamples = 4\nvalue = 9.1"] ;
8 -> 12 ;
13 [label="squared_error = 0.0\nsamples = 3\nvalue = 8.5"] ;
12 -> 13 ;
14 [label="squared_error = 0.0\nsamples = 1\nvalue = 10.0"] ;
12 -> 14 ;
}