digraph Tree {
node [shape=box, style="rounded", color="black", fontname="helvetica"] ;
edge [fontname="helvetica"] ;
0 [label="Non_college_jobs <= 5.9\nsquared_error = 3.7\nsamples = 95\nvalue = 0.8"] ;
1 [label="Non_college_jobs <= 1.2\nsquared_error = 1.1\nsamples = 92\nvalue = 0.5"] ;
0 -> 1 [labeldistance=2.5, labelangle=45, headlabel="True"] ;
2 [label="Non_college_jobs <= 0.2\nsquared_error = 0.2\nsamples = 78\nvalue = 0.0"] ;
1 -> 2 ;
3 [label="Non_college_jobs <= -0.2\nsquared_error = 0.0\nsamples = 55\nvalue = -0.2"] ;
2 -> 3 ;
4 [label="College_jobs <= -0.0\nsquared_error = 0.0\nsamples = 33\nvalue = -0.3"] ;
3 -> 4 ;
5 [label="Non_college_jobs <= -0.4\nsquared_error = 0.0\nsamples = 29\nvalue = -0.3"] ;
4 -> 5 ;
6 [label="Psychology & Social Work <= 0.5\nsquared_error = 0.0\nsamples = 14\nvalue = -0.4"] ;
5 -> 6 ;
7 [label="Non_college_jobs <= -0.4\nsquared_error = 0.0\nsamples = 12\nvalue = -0.4"] ;
6 -> 7 ;
8 [label="Agriculture & Natural Resources <= 0.5\nsquared_error = 0.0\nsamples = 4\nvalue = -0.4"] ;
7 -> 8 ;
9 [label="squared_error = 0.0\nsamples = 3\nvalue = -0.4"] ;
8 -> 9 ;
10 [label="squared_error = 0.0\nsamples = 1\nvalue = -0.4"] ;
8 -> 10 ;
11 [label="Unemployment_rate <= 0.5\nsquared_error = 0.0\nsamples = 8\nvalue = -0.4"] ;
7 -> 11 ;
12 [label="Non_college_jobs <= -0.4\nsquared_error = 0.0\nsamples = 7\nvalue = -0.4"] ;
11 -> 12 ;
13 [label="College_jobs <= -0.3\nsquared_error = 0.0\nsamples = 6\nvalue = -0.4"] ;
12 -> 13 ;
14 [label="Unemployment_rate <= -1.7\nsquared_error = 0.0\nsamples = 2\nvalue = -0.4"] ;
13 -> 14 ;
15 [label="squared_error = 0.0\nsamples = 1\nvalue = -0.4"] ;
14 -> 15 ;
16 [label="squared_error = 0.0\nsamples = 1\nvalue = -0.3"] ;
14 -> 16 ;
17 [label="College_jobs <= -0.3\nsquared_error = 0.0\nsamples = 4\nvalue = -0.4"] ;
13 -> 17 ;
18 [label="Non_college_jobs <= -0.4\nsquared_error = 0.0\nsamples = 2\nvalue = -0.4"] ;
17 -> 18 ;
19 [label="squared_error = 0.0\nsamples = 1\nvalue = -0.4"] ;
18 -> 19 ;
20 [label="squared_error = -0.0\nsamples = 1\nvalue = -0.4"] ;
18 -> 20 ;
21 [label="Arts <= 0.5\nsquared_error = 0.0\nsamples = 2\nvalue = -0.4"] ;
17 -> 21 ;
22 [label="squared_error = 0.0\nsamples = 1\nvalue = -0.4"] ;
21 -> 22 ;
23 [label="squared_error = 0.0\nsamples = 1\nvalue = -0.4"] ;
21 -> 23 ;
24 [label="squared_error = -0.0\nsamples = 1\nvalue = -0.3"] ;
12 -> 24 ;
25 [label="squared_error = -0.0\nsamples = 1\nvalue = -0.4"] ;
11 -> 25 ;
26 [label="College_jobs <= -0.3\nsquared_error = 0.0\nsamples = 2\nvalue = -0.3"] ;
6 -> 26 ;
27 [label="squared_error = 0.0\nsamples = 1\nvalue = -0.3"] ;
26 -> 27 ;
28 [label="squared_error = 0.0\nsamples = 1\nvalue = -0.3"] ;
26 -> 28 ;
29 [label="College_jobs <= -0.3\nsquared_error = 0.0\nsamples = 15\nvalue = -0.3"] ;
5 -> 29 ;
30 [label="Non_college_jobs <= -0.3\nsquared_error = 0.0\nsamples = 2\nvalue = -0.4"] ;
29 -> 30 ;
31 [label="squared_error = 0.0\nsamples = 1\nvalue = -0.3"] ;
30 -> 31 ;
32 [label="squared_error = -0.0\nsamples = 1\nvalue = -0.4"] ;
30 -> 32 ;
33 [label="College_jobs <= -0.3\nsquared_error = 0.0\nsamples = 13\nvalue = -0.3"] ;
29 -> 33 ;
34 [label="Unemployment_rate <= -0.2\nsquared_error = 0.0\nsamples = 3\nvalue = -0.2"] ;
33 -> 34 ;
35 [label="squared_error = 0.0\nsamples = 1\nvalue = -0.3"] ;
34 -> 35 ;
36 [label="Communications & Journalism <= 0.5\nsquared_error = 0.0\nsamples = 2\nvalue = -0.2"] ;
34 -> 36 ;
37 [label="squared_error = 0.0\nsamples = 1\nvalue = -0.2"] ;
36 -> 37 ;
38 [label="squared_error = -0.0\nsamples = 1\nvalue = -0.2"] ;
36 -> 38 ;
39 [label="Non_college_jobs <= -0.3\nsquared_error = 0.0\nsamples = 10\nvalue = -0.3"] ;
33 -> 39 ;
40 [label="College_jobs <= -0.2\nsquared_error = 0.0\nsamples = 6\nvalue = -0.3"] ;
39 -> 40 ;
41 [label="Physical Sciences <= 0.5\nsquared_error = 0.0\nsamples = 3\nvalue = -0.3"] ;
40 -> 41 ;
42 [label="Psychology & Social Work <= 0.5\nsquared_error = 0.0\nsamples = 2\nvalue = -0.3"] ;
41 -> 42 ;
43 [label="squared_error = 0.0\nsamples = 1\nvalue = -0.3"] ;
42 -> 43 ;
44 [label="squared_error = 0.0\nsamples = 1\nvalue = -0.3"] ;
42 -> 44 ;
45 [label="squared_error = -0.0\nsamples = 1\nvalue = -0.4"] ;
41 -> 45 ;
46 [label="Non_college_jobs <= -0.3\nsquared_error = 0.0\nsamples = 3\nvalue = -0.3"] ;
40 -> 46 ;
47 [label="squared_error = 0.0\nsamples = 1\nvalue = -0.3"] ;
46 -> 47 ;
48 [label="Communications & Journalism <= 0.5\nsquared_error = 0.0\nsamples = 2\nvalue = -0.3"] ;
46 -> 48 ;
49 [label="squared_error = 0.0\nsamples = 1\nvalue = -0.3"] ;
48 -> 49 ;
50 [label="squared_error = 0.0\nsamples = 1\nvalue = -0.3"] ;
48 -> 50 ;
51 [label="Unemployment_rate <= -0.1\nsquared_error = 0.0\nsamples = 4\nvalue = -0.3"] ;
39 -> 51 ;
52 [label="squared_error = 0.0\nsamples = 1\nvalue = -0.3"] ;
51 -> 52 ;
53 [label="College_jobs <= -0.2\nsquared_error = 0.0\nsamples = 3\nvalue = -0.3"] ;
51 -> 53 ;
54 [label="squared_error = 0.0\nsamples = 1\nvalue = -0.3"] ;
53 -> 54 ;
55 [label="Non_college_jobs <= -0.2\nsquared_error = 0.0\nsamples = 2\nvalue = -0.3"] ;
53 -> 55 ;
56 [label="squared_error = 0.0\nsamples = 1\nvalue = -0.3"] ;
55 -> 56 ;
57 [label="squared_error = -0.0\nsamples = 1\nvalue = -0.3"] ;
55 -> 57 ;
58 [label="Unemployment_rate <= 0.3\nsquared_error = 0.0\nsamples = 4\nvalue = -0.2"] ;
4 -> 58 ;
59 [label="Unemployment_rate <= -0.8\nsquared_error = 0.0\nsamples = 3\nvalue = -0.2"] ;
58 -> 59 ;
60 [label="squared_error = 0.0\nsamples = 1\nvalue = -0.1"] ;
59 -> 60 ;
61 [label="College_jobs <= 0.1\nsquared_error = 0.0\nsamples = 2\nvalue = -0.3"] ;
59 -> 61 ;
62 [label="squared_error = 0.0\nsamples = 1\nvalue = -0.2"] ;
61 -> 62 ;
63 [label="squared_error = 0.0\nsamples = 1\nvalue = -0.3"] ;
61 -> 63 ;
64 [label="squared_error = 0.0\nsamples = 1\nvalue = -0.1"] ;
58 -> 64 ;
65 [label="Arts <= 0.5\nsquared_error = 0.0\nsamples = 22\nvalue = -0.0"] ;
3 -> 65 ;
66 [label="College_jobs <= 0.1\nsquared_error = 0.0\nsamples = 19\nvalue = 0.0"] ;
65 -> 66 ;
67 [label="Non_college_jobs <= -0.1\nsquared_error = 0.0\nsamples = 12\nvalue = -0.0"] ;
66 -> 67 ;
68 [label="Non_college_jobs <= -0.1\nsquared_error = 0.0\nsamples = 4\nvalue = 0.1"] ;
67 -> 68 ;
69 [label="Unemployment_rate <= 0.0\nsquared_error = 0.0\nsamples = 2\nvalue = -0.0"] ;
68 -> 69 ;
70 [label="squared_error = 0.0\nsamples = 1\nvalue = 0.0"] ;
69 -> 70 ;
71 [label="squared_error = 0.0\nsamples = 1\nvalue = -0.0"] ;
69 -> 71 ;
72 [label="Interdisciplinary <= 0.5\nsquared_error = 0.0\nsamples = 2\nvalue = 0.1"] ;
68 -> 72 ;
73 [label="squared_error = 0.0\nsamples = 1\nvalue = 0.1"] ;
72 -> 73 ;
74 [label="squared_error = 0.0\nsamples = 1\nvalue = 0.1"] ;
72 -> 74 ;
75 [label="Non_college_jobs <= 0.1\nsquared_error = 0.0\nsamples = 8\nvalue = -0.1"] ;
67 -> 75 ;
76 [label="College_jobs <= -0.1\nsquared_error = 0.0\nsamples = 5\nvalue = -0.1"] ;
75 -> 76 ;
77 [label="Engineering <= 0.5\nsquared_error = 0.0\nsamples = 2\nvalue = -0.1"] ;
76 -> 77 ;
78 [label="squared_error = 0.0\nsamples = 1\nvalue = -0.1"] ;
77 -> 78 ;
79 [label="squared_error = -0.0\nsamples = 1\nvalue = -0.1"] ;
77 -> 79 ;
80 [label="College_jobs <= -0.0\nsquared_error = 0.0\nsamples = 3\nvalue = -0.2"] ;
76 -> 80 ;
81 [label="Non_college_jobs <= 0.0\nsquared_error = 0.0\nsamples = 2\nvalue = -0.2"] ;
80 -> 81 ;
82 [label="squared_error = 0.0\nsamples = 1\nvalue = -0.2"] ;
81 -> 82 ;
83 [label="squared_error = 0.0\nsamples = 1\nvalue = -0.2"] ;
81 -> 83 ;
84 [label="squared_error = 0.0\nsamples = 1\nvalue = -0.2"] ;
80 -> 84 ;
85 [label="Unemployment_rate <= 0.1\nsquared_error = 0.0\nsamples = 3\nvalue = -0.0"] ;
75 -> 85 ;
86 [label="Unemployment_rate <= 0.0\nsquared_error = 0.0\nsamples = 2\nvalue = 0.0"] ;
85 -> 86 ;
87 [label="squared_error = 0.0\nsamples = 1\nvalue = 0.1"] ;
86 -> 87 ;
88 [label="squared_error = -0.0\nsamples = 1\nvalue = 0.0"] ;
86 -> 88 ;
89 [label="squared_error = 0.0\nsamples = 1\nvalue = -0.2"] ;
85 -> 89 ;
90 [label="Non_college_jobs <= -0.0\nsquared_error = 0.0\nsamples = 7\nvalue = 0.1"] ;
66 -> 90 ;
91 [label="Non_college_jobs <= -0.1\nsquared_error = 0.0\nsamples = 4\nvalue = 0.0"] ;
90 -> 91 ;
92 [label="Non_college_jobs <= -0.1\nsquared_error = 0.0\nsamples = 2\nvalue = -0.0"] ;
91 -> 92 ;
93 [label="squared_error = 0.0\nsamples = 1\nvalue = -0.0"] ;
92 -> 93 ;
94 [label="squared_error = 0.0\nsamples = 1\nvalue = -0.0"] ;
92 -> 94 ;
95 [label="Health <= 0.5\nsquared_error = 0.0\nsamples = 2\nvalue = 0.1"] ;
91 -> 95 ;
96 [label="squared_error = 0.0\nsamples = 1\nvalue = 0.0"] ;
95 -> 96 ;
97 [label="squared_error = -0.0\nsamples = 1\nvalue = 0.1"] ;
95 -> 97 ;
98 [label="Unemployment_rate <= -0.2\nsquared_error = 0.0\nsamples = 3\nvalue = 0.2"] ;
90 -> 98 ;
99 [label="Non_college_jobs <= 0.0\nsquared_error = 0.0\nsamples = 2\nvalue = 0.2"] ;
98 -> 99 ;
100 [label="squared_error = 0.0\nsamples = 1\nvalue = 0.2"] ;
99 -> 100 ;
101 [label="squared_error = 0.0\nsamples = 1\nvalue = 0.2"] ;
99 -> 101 ;
102 [label="squared_error = 0.0\nsamples = 1\nvalue = 0.4"] ;
98 -> 102 ;
103 [label="Unemployment_rate <= -0.3\nsquared_error = 0.0\nsamples = 3\nvalue = -0.2"] ;
65 -> 103 ;
104 [label="squared_error = 0.0\nsamples = 1\nvalue = -0.3"] ;
103 -> 104 ;
105 [label="Unemployment_rate <= -0.1\nsquared_error = 0.0\nsamples = 2\nvalue = -0.1"] ;
103 -> 105 ;
106 [label="squared_error = 0.0\nsamples = 1\nvalue = -0.1"] ;
105 -> 106 ;
107 [label="squared_error = -0.0\nsamples = 1\nvalue = -0.1"] ;
105 -> 107 ;
108 [label="Non_college_jobs <= 0.5\nsquared_error = 0.1\nsamples = 23\nvalue = 0.6"] ;
2 -> 108 ;
109 [label="Health <= 0.5\nsquared_error = 0.1\nsamples = 13\nvalue = 0.4"] ;
108 -> 109 ;
110 [label="Law & Public Policy <= 0.5\nsquared_error = 0.0\nsamples = 9\nvalue = 0.4"] ;
109 -> 110 ;
111 [label="College_jobs <= 0.1\nsquared_error = 0.0\nsamples = 8\nvalue = 0.5"] ;
110 -> 111 ;
112 [label="Unemployment_rate <= 0.6\nsquared_error = 0.0\nsamples = 3\nvalue = 0.6"] ;
111 -> 112 ;
113 [label="Social Science <= 0.5\nsquared_error = 0.0\nsamples = 2\nvalue = 0.7"] ;
112 -> 113 ;
114 [label="squared_error = 0.0\nsamples = 1\nvalue = 0.6"] ;
113 -> 114 ;
115 [label="squared_error = 0.0\nsamples = 1\nvalue = 0.7"] ;
113 -> 115 ;
116 [label="squared_error = -0.0\nsamples = 1\nvalue = 0.5"] ;
112 -> 116 ;
117 [label="College_jobs <= 0.9\nsquared_error = 0.0\nsamples = 5\nvalue = 0.4"] ;
111 -> 117 ;
118 [label="Physical Sciences <= 0.5\nsquared_error = 0.0\nsamples = 2\nvalue = 0.3"] ;
117 -> 118 ;
119 [label="squared_error = 0.0\nsamples = 1\nvalue = 0.3"] ;
118 -> 119 ;
120 [label="squared_error = -0.0\nsamples = 1\nvalue = 0.3"] ;
118 -> 120 ;
121 [label="Industrial Arts & Consumer Services <= 0.5\nsquared_error = 0.0\nsamples = 3\nvalue = 0.5"] ;
117 -> 121 ;
122 [label="squared_error = 0.0\nsamples = 1\nvalue = 0.5"] ;
121 -> 122 ;
123 [label="Unemployment_rate <= -0.6\nsquared_error = 0.0\nsamples = 2\nvalue = 0.5"] ;
121 -> 123 ;
124 [label="squared_error = 0.0\nsamples = 1\nvalue = 0.5"] ;
123 -> 124 ;
125 [label="squared_error = -0.0\nsamples = 1\nvalue = 0.5"] ;
123 -> 125 ;
126 [label="squared_error = -0.0\nsamples = 1\nvalue = 0.2"] ;
110 -> 126 ;
127 [label="Unemployment_rate <= 0.9\nsquared_error = 0.0\nsamples = 4\nvalue = 0.0"] ;
109 -> 127 ;
128 [label="Unemployment_rate <= -0.8\nsquared_error = 0.0\nsamples = 3\nvalue = -0.0"] ;
127 -> 128 ;
129 [label="squared_error = 0.0\nsamples = 1\nvalue = -0.1"] ;
128 -> 129 ;
130 [label="College_jobs <= -0.2\nsquared_error = 0.0\nsamples = 2\nvalue = 0.0"] ;
128 -> 130 ;
131 [label="squared_error = 0.0\nsamples = 1\nvalue = 0.0"] ;
130 -> 131 ;
132 [label="squared_error = 0.0\nsamples = 1\nvalue = 0.1"] ;
130 -> 132 ;
133 [label="squared_error = 0.0\nsamples = 1\nvalue = 0.2"] ;
127 -> 133 ;
134 [label="College_jobs <= 0.6\nsquared_error = 0.1\nsamples = 10\nvalue = 0.8"] ;
108 -> 134 ;
135 [label="Non_college_jobs <= 0.5\nsquared_error = 0.0\nsamples = 4\nvalue = 0.6"] ;
134 -> 135 ;
136 [label="squared_error = 0.0\nsamples = 1\nvalue = 0.3"] ;
135 -> 136 ;
137 [label="Non_college_jobs <= 0.5\nsquared_error = 0.0\nsamples = 3\nvalue = 0.6"] ;
135 -> 137 ;
138 [label="squared_error = 0.0\nsamples = 1\nvalue = 0.7"] ;
137 -> 138 ;
139 [label="Non_college_jobs <= 0.6\nsquared_error = 0.0\nsamples = 2\nvalue = 0.6"] ;
137 -> 139 ;
140 [label="squared_error = 0.0\nsamples = 1\nvalue = 0.6"] ;
139 -> 140 ;
141 [label="squared_error = 0.0\nsamples = 1\nvalue = 0.6"] ;
139 -> 141 ;
142 [label="College_jobs <= 1.6\nsquared_error = 0.0\nsamples = 6\nvalue = 0.9"] ;
134 -> 142 ;
143 [label="Non_college_jobs <= 0.7\nsquared_error = 0.0\nsamples = 3\nvalue = 1.0"] ;
142 -> 143 ;
144 [label="squared_error = 0.0\nsamples = 1\nvalue = 1.2"] ;
143 -> 144 ;
145 [label="College_jobs <= 1.2\nsquared_error = 0.0\nsamples = 2\nvalue = 1.0"] ;
143 -> 145 ;
146 [label="squared_error = 0.0\nsamples = 1\nvalue = 1.0"] ;
145 -> 146 ;
147 [label="squared_error = -0.0\nsamples = 1\nvalue = 1.0"] ;
145 -> 147 ;
148 [label="Psychology & Social Work <= 0.5\nsquared_error = 0.0\nsamples = 3\nvalue = 0.7"] ;
142 -> 148 ;
149 [label="Unemployment_rate <= -0.3\nsquared_error = 0.0\nsamples = 2\nvalue = 0.6"] ;
148 -> 149 ;
150 [label="squared_error = 0.0\nsamples = 1\nvalue = 0.6"] ;
149 -> 150 ;
151 [label="squared_error = -0.0\nsamples = 1\nvalue = 0.6"] ;
149 -> 151 ;
152 [label="squared_error = -0.0\nsamples = 1\nvalue = 1.0"] ;
148 -> 152 ;
153 [label="Non_college_jobs <= 2.2\nsquared_error = 0.7\nsamples = 14\nvalue = 2.4"] ;
1 -> 153 ;
154 [label="College_jobs <= 0.2\nsquared_error = 0.5\nsamples = 9\nvalue = 1.9"] ;
153 -> 154 ;
155 [label="squared_error = -0.0\nsamples = 1\nvalue = 3.1"] ;
154 -> 155 ;
156 [label="College_jobs <= 0.8\nsquared_error = 0.1\nsamples = 8\nvalue = 1.6"] ;
154 -> 156 ;
157 [label="Social Science <= 0.5\nsquared_error = 0.1\nsamples = 4\nvalue = 1.9"] ;
156 -> 157 ;
158 [label="Unemployment_rate <= 0.3\nsquared_error = 0.0\nsamples = 3\nvalue = 1.7"] ;
157 -> 158 ;
159 [label="squared_error = 0.0\nsamples = 1\nvalue = 1.9"] ;
158 -> 159 ;
160 [label="Computers & Mathematics <= 0.5\nsquared_error = 0.0\nsamples = 2\nvalue = 1.6"] ;
158 -> 160 ;
161 [label="squared_error = 0.0\nsamples = 1\nvalue = 1.5"] ;
160 -> 161 ;
162 [label="squared_error = 0.0\nsamples = 1\nvalue = 1.7"] ;
160 -> 162 ;
163 [label="squared_error = 0.0\nsamples = 1\nvalue = 2.2"] ;
157 -> 163 ;
164 [label="Unemployment_rate <= -0.4\nsquared_error = 0.0\nsamples = 4\nvalue = 1.4"] ;
156 -> 164 ;
165 [label="squared_error = 0.0\nsamples = 1\nvalue = 1.6"] ;
164 -> 165 ;
166 [label="College_jobs <= 3.2\nsquared_error = 0.0\nsamples = 3\nvalue = 1.3"] ;
164 -> 166 ;
167 [label="Biology & Life Science <= 0.5\nsquared_error = 0.0\nsamples = 2\nvalue = 1.3"] ;
166 -> 167 ;
168 [label="squared_error = 0.0\nsamples = 1\nvalue = 1.3"] ;
167 -> 168 ;
169 [label="squared_error = -0.0\nsamples = 1\nvalue = 1.3"] ;
167 -> 169 ;
170 [label="squared_error = -0.0\nsamples = 1\nvalue = 1.3"] ;
166 -> 170 ;
171 [label="College_jobs <= 1.0\nsquared_error = 0.1\nsamples = 5\nvalue = 3.1"] ;
153 -> 171 ;
172 [label="squared_error = 0.0\nsamples = 1\nvalue = 2.6"] ;
171 -> 172 ;
173 [label="Non_college_jobs <= 3.2\nsquared_error = 0.0\nsamples = 4\nvalue = 3.2"] ;
171 -> 173 ;
174 [label="College_jobs <= 4.7\nsquared_error = 0.0\nsamples = 2\nvalue = 3.3"] ;
173 -> 174 ;
175 [label="squared_error = 0.0\nsamples = 1\nvalue = 3.4"] ;
174 -> 175 ;
176 [label="squared_error = -0.0\nsamples = 1\nvalue = 3.3"] ;
174 -> 176 ;
177 [label="Unemployment_rate <= 0.3\nsquared_error = 0.0\nsamples = 2\nvalue = 3.0"] ;
173 -> 177 ;
178 [label="squared_error = 0.0\nsamples = 1\nvalue = 2.8"] ;
177 -> 178 ;
179 [label="squared_error = 0.0\nsamples = 1\nvalue = 3.0"] ;
177 -> 179 ;
180 [label="Non_college_jobs <= 11.4\nsquared_error = 0.3\nsamples = 3\nvalue = 8.8"] ;
0 -> 180 [labeldistance=2.5, labelangle=-45, headlabel="False"] ;
181 [label="College_jobs <= 4.1\nsquared_error = 0.0\nsamples = 2\nvalue = 8.6"] ;
180 -> 181 ;
182 [label="squared_error = 0.0\nsamples = 1\nvalue = 8.6"] ;
181 -> 182 ;
183 [label="squared_error = -0.0\nsamples = 1\nvalue = 8.7"] ;
181 -> 183 ;
184 [label="squared_error = -0.0\nsamples = 1\nvalue = 10.0"] ;
180 -> 184 ;
}